{
    "activation_functions": [
        "relu",
        "prelu",
        "sigmoid"
    ],
    "batches": "false",
    "bias": [
        [
            -0.0860699264,
            0.0974575931,
            0.0757002488,
            0.0442516561,
            -0.1082149131,
            0.1058092969
        ],
        [
            -0.0311194746,
            -0.0002964579,
            0.0095747898,
            -0.0351677188,
            0.0050852958,
            -0.0177001512,
            -0.0215440963,
            0.0574057688,
            -0.0026570328,
            0.0137167181,
            0.10769227,
            0.0299712215
        ],
        [
            -0.0665223138,
            0.055363379
        ]
    ],
    "cost": "Log",
    "gradient_descent": "GD",
    "gradient_descent_options": {},
    "hidden_layers": [
        6,
        12
    ],
    "iterations": 100000,
    "learning_rate": 1e-05,
    "seed": 666,
    "weights": [
        [
            [
                0.4676665799,
                1.0355668338,
                1.4723178438,
                1.4399552398,
                -1.3517378489,
                1.5288061764
            ],
            [
                -0.0416470811,
                -0.7779421145,
                0.6818714708,
                -1.0805172321,
                2.447492837,
                -1.3094915452
            ],
            [
                1.5172469283,
                -0.9590461262,
                -0.5658147853,
                -0.3879075176,
                -0.9666840682,
                -0.9271162186
            ],
            [
                -2.7062496628,
                1.1112179741,
                -0.5275673875,
                1.2168507388,
                -0.3216448946,
                2.7706188757
            ]
        ],
        [
            [
                1.0611676926,
                0.2582079254,
                0.5810107299,
                0.7813091358,
                -0.3270761412,
                -0.6256519995,
                0.4560227858,
                -1.0612514897,
                0.2212432786,
                -0.4964673496,
                0.678838879,
                -0.6053652385
            ],
            [
                0.444112223,
                -0.470935833,
                -0.0837852378,
                -0.4958776725,
                -0.6833233444,
                -0.3230668209,
                -1.1421575255,
                0.4274891172,
                -1.0125425101,
                0.5075377406,
                0.3648465761,
                0.5705599364
            ],
            [
                0.240930013,
                0.6859485751,
                0.9741565213,
                -0.0436978038,
                -0.3811722233,
                -0.4839631588,
                -0.4138318389,
                0.8262146293,
                -0.0283983768,
                -0.4760757466,
                0.6081908464,
                0.4266531569
            ],
            [
                -0.6106646043,
                -0.4916365051,
                0.5914663267,
                -0.3335077631,
                -0.2933903511,
                0.7291545365,
                -0.314865256,
                -0.1634713109,
                -0.575944872,
                -0.8799907458,
                0.4006804167,
                -0.0240441061
            ],
            [
                -0.110493047,
                0.8380742316,
                -0.1047267563,
                0.8924552346,
                -0.0324981593,
                -0.2060072773,
                0.7401364845,
                1.0216025777,
                -0.2173556494,
                -0.8956928174,
                -1.2314484618,
                0.4829104593
            ],
            [
                -1.8122872165,
                1.7652224003,
                0.0224080457,
                -0.8094392953,
                0.4274175797,
                0.526612368,
                -0.5861402142,
                0.1576949871,
                0.1862069725,
                0.4044519361,
                -0.2662574422,
                0.0243687412
            ]
        ],
        [
            [
                1.1924751026,
                -0.3372790754
            ],
            [
                0.3177534273,
                0.2639110258
            ],
            [
                -0.4827914592,
                -0.0154687022
            ],
            [
                0.5855028206,
                -0.996570884
            ],
            [
                0.5083422162,
                -0.6274577978
            ],
            [
                0.6557544199,
                -1.0573052051
            ],
            [
                1.0326724376,
                -0.7978549466
            ],
            [
                -1.3115062777,
                0.7488801824
            ],
            [
                -0.4601786292,
                -0.5790745748
            ],
            [
                -1.1297015105,
                0.0793133613
            ],
            [
                -1.4812168754,
                1.0776930877
            ],
            [
                -0.2740484254,
                0.8396264622
            ]
        ]
    ],
    "weights_initialisation": [
        "he_uniform",
        "he_uniform",
        "xavier_uniform"
    ]
}